digraph Tree {
node [shape=box] ;
0 [label="X[0] <= 1.5\ngini = 0.5\nsamples = 32\nvalue = [16, 16]"] ;
1 [label="X[1] <= 1.5\ngini = 0.5\nsamples = 8\nvalue = [4, 4]"] ;
0 -> 1 [labeldistance=2.5, labelangle=45, headlabel="True"] ;
2 [label="X[2] <= 1.5\ngini = 0.5\nsamples = 4\nvalue = [2, 2]"] ;
1 -> 2 ;
3 [label="gini = 0.5\nsamples = 2\nvalue = [1, 1]"] ;
2 -> 3 ;
4 [label="gini = 0.5\nsamples = 2\nvalue = [1, 1]"] ;
2 -> 4 ;
5 [label="X[2] <= 1.5\ngini = 0.5\nsamples = 4\nvalue = [2, 2]"] ;
1 -> 5 ;
6 [label="gini = 0.5\nsamples = 2\nvalue = [1, 1]"] ;
5 -> 6 ;
7 [label="gini = 0.5\nsamples = 2\nvalue = [1, 1]"] ;
5 -> 7 ;
8 [label="X[2] <= 1.5\ngini = 0.5\nsamples = 24\nvalue = [12, 12]"] ;
0 -> 8 [labeldistance=2.5, labelangle=-45, headlabel="False"] ;
9 [label="X[1] <= 1.5\ngini = 0.5\nsamples = 12\nvalue = [6, 6]"] ;
8 -> 9 ;
10 [label="X[0] <= 2.5\ngini = 0.5\nsamples = 6\nvalue = [3, 3]"] ;
9 -> 10 ;
11 [label="gini = 0.5\nsamples = 2\nvalue = [1, 1]"] ;
10 -> 11 ;
12 [label="X[0] <= 51.0\ngini = 0.5\nsamples = 4\nvalue = [2, 2]"] ;
10 -> 12 ;
13 [label="gini = 0.5\nsamples = 2\nvalue = [1, 1]"] ;
12 -> 13 ;
14 [label="gini = 0.5\nsamples = 2\nvalue = [1, 1]"] ;
12 -> 14 ;
15 [label="X[0] <= 2.5\ngini = 0.5\nsamples = 6\nvalue = [3, 3]"] ;
9 -> 15 ;
16 [label="gini = 0.5\nsamples = 2\nvalue = [1, 1]"] ;
15 -> 16 ;
17 [label="X[0] <= 51.0\ngini = 0.5\nsamples = 4\nvalue = [2, 2]"] ;
15 -> 17 ;
18 [label="gini = 0.5\nsamples = 2\nvalue = [1, 1]"] ;
17 -> 18 ;
19 [label="gini = 0.5\nsamples = 2\nvalue = [1, 1]"] ;
17 -> 19 ;
20 [label="X[0] <= 2.5\ngini = 0.5\nsamples = 12\nvalue = [6, 6]"] ;
8 -> 20 ;
21 [label="X[1] <= 1.5\ngini = 0.5\nsamples = 4\nvalue = [2, 2]"] ;
20 -> 21 ;
22 [label="gini = 0.5\nsamples = 2\nvalue = [1, 1]"] ;
21 -> 22 ;
23 [label="gini = 0.5\nsamples = 2\nvalue = [1, 1]"] ;
21 -> 23 ;
24 [label="X[1] <= 1.5\ngini = 0.5\nsamples = 8\nvalue = [4, 4]"] ;
20 -> 24 ;
25 [label="X[0] <= 51.0\ngini = 0.5\nsamples = 4\nvalue = [2, 2]"] ;
24 -> 25 ;
26 [label="gini = 0.5\nsamples = 2\nvalue = [1, 1]"] ;
25 -> 26 ;
27 [label="gini = 0.5\nsamples = 2\nvalue = [1, 1]"] ;
25 -> 27 ;
28 [label="X[0] <= 51.0\ngini = 0.5\nsamples = 4\nvalue = [2, 2]"] ;
24 -> 28 ;
29 [label="gini = 0.5\nsamples = 2\nvalue = [1, 1]"] ;
28 -> 29 ;
30 [label="gini = 0.5\nsamples = 2\nvalue = [1, 1]"] ;
28 -> 30 ;
}